{
  "parameters": {
    "coef0": 0.0,
    "coefficients": [
      [
        -1.0,
        -1.0,
        -1.0,
        -1.0,
        -1.0,
        -1.0,
        -1.0,
        -1.0,
        -1.0,
        -1.0,
        -1.0,
        -1.0,
        -1.0,
        -1.0,
        -1.0,
        -1.0,
        -1.0,
        -1.0,
        -1.0,
        -1.0,
        -1.0,
        -1.0,
        -1.0,
        -1.0,
        -1.0,
        -0.455489396412408,
        -1.0,
        -1.0,
        -1.0,
        1.0,
        1.0,
        1.0,
        1.0,
        1.0,
        1.0,
        1.0,
        1.0,
        1.0,
        1.0,
        1.0,
        1.0,
        0.8658313181285655,
        1.0,
        1.0,
        0.740692773947885,
        1.0,
        1.0,
        1.0,
        1.0,
        1.0,
        1.0,
        1.0,
        1.0,
        1.0,
        1.0,
        1.0,
        1.0,
        0.8489653043359573
      ]
    ],
    "degree": 3,
    "gamma": 0.1,
    "intercepts": [
      -0.22293485929119725
    ],
    "kernel": "LINEAR",
    "nClasses": 2,
    "nRows": 2,
    "vectors": [
      [
        -0.161085122180178,
        -0.052415711610202004,
        -0.26737961263272303
      ],
      [
        1.037823112280247,
        1.06371030135771,
        3.343844423207965
      ],
      [
        0.8816485903565111,
        0.8013940175337381,
        2.528714092005387
      ],
      [
        -0.38726401682259204,
        -0.386743481714777,
        -0.253881370141658
      ],
      [
        0.42833190017410505,
        -0.049386171073239005,
        -0.16014566657203502
      ],
      [
        0.33855687891142805,
        0.135567278708387,
        -0.26737961263272303
      ],
      [
        -0.150202456152078,
        -0.5584247197965461,
        -0.26737961263272303
      ],
      [
        0.299387476784274,
        -0.076940563576097,
        -0.26124099414143104
      ],
      [
        0.034978766050411,
        0.05445133083118701,
        -0.26737961263272303
      ],
      [
        -1.532814816767505,
        0.028700236266997,
        -0.24529642332892201
      ],
      [
        -0.574254674777193,
        0.25354220855077203,
        -0.26737961263272303
      ],
      [
        0.326276226545595,
        -0.315076876164945,
        -0.18705673711098503
      ],
      [
        -0.307031934944387,
        -0.293188445785383,
        -0.26737961263272303
      ],
      [
        0.8274451807813871,
        0.388295878216942,
        2.4097068714304672
      ],
      [
        0.44392194045564504,
        0.16646859218541601,
        -0.26737961263272303
      ],
      [
        0.12260052320841201,
        -0.285463117416126,
        -0.23611589421901602
      ],
      [
        -0.297574634729726,
        -0.28803822687254604,
        -0.20613083875995802
      ],
      [
        0.08175016457483601,
        0.06475176865686401,
        -0.26737961263272303
      ],
      [
        1.054824762189847,
        0.88693943357918,
        2.301506523867652
      ],
      [
        0.45110275621320106,
        -0.076879251446184,
        -0.259293852176122
      ],
      [
        -1.560006945404922,
        0.10886745960762101,
        -0.250064218974519
      ],
      [
        1.030310971967607,
        1.2445030509863,
        6.37856546134487
      ],
      [
        -0.07276879166915401,
        -0.061428594707669,
        -0.26737961263272303
      ],
      [
        -0.28085566092666203,
        -0.49790964757069706,
        -0.26737961263272303
      ],
      [
        1.035355689920849,
        0.25488068352247,
        0.979259885081126
      ],
      [
        -0.30735611546622105,
        -0.6557270699712361,
        -0.26737961263272303
      ],
      [
        0.33541573250363704,
        -0.24168625665700202,
        -0.250833035393126
      ],
      [
        -0.11278225760663702,
        -0.223660490462069,
        -0.23180345002301603
      ],
      [
        -1.494934000860509,
        0.06475176865686401,
        -0.248356943497184
      ],
      [
        -0.053777656157767,
        -0.186893649889864,
        -0.162803991051363
      ],
      [
        0.62052359264065,
        0.487576938038883,
        -0.26737961263272303
      ],
      [
        0.23566735871455602,
        0.624768477875131,
        2.252474358994003
      ],
      [
        0.8335858784487461,
        0.215239604617595,
        -0.26737961263272303
      ],
      [
        0.8406066875668411,
        0.465549161909514,
        -0.26737961263272303
      ],
      [
        0.206869133475677,
        0.15874326381615902,
        2.190476939999695
      ],
      [
        -0.121966151870254,
        0.7962507962009451,
        8.69214234591056
      ],
      [
        0.831735828651713,
        0.424784259532452,
        -0.26737961263272303
      ],
      [
        0.8604946838596951,
        0.164953821916935,
        -0.26737961263272303
      ],
      [
        0.889056476474371,
        0.47226284013517805,
        -0.26737961263272303
      ],
      [
        0.7103161174696381,
        0.5446877935969631,
        -0.26737961263272303
      ],
      [
        0.865090261909204,
        0.488357274237797,
        -0.26737961263272303
      ],
      [
        0.6979973405291121,
        0.6026277563663921,
        -0.26737961263272303
      ],
      [
        -1.407525648736228,
        -0.47020502169474104,
        -0.25298075739875303
      ],
      [
        0.6914452808517371,
        0.5890206438978141,
        -0.26737961263272303
      ],
      [
        0.144684456499856,
        0.7318221682992341,
        3.142310315121463
      ],
      [
        -0.797714418537603,
        -0.30992665725210705,
        -0.246435965326935
      ],
      [
        0.8765837842976381,
        0.43353236323016503,
        -0.26737961263272303
      ],
      [
        -0.9889705829345791,
        -0.24683647556984,
        -0.241181102095737
      ],
      [
        -0.962911860324239,
        -0.322124544150934,
        -0.24001730013792202
      ],
      [
        -1.213240114965625,
        -0.41006980277951405,
        -0.24265294316843602
      ],
      [
        0.008058358114649,
        -0.065291258892297,
        -0.139121983309856
      ],
      [
        -0.862252819056984,
        -0.29388499178589,
        -0.24712435142707803
      ],
      [
        -0.12899491100965801,
        0.06544506735666901,
        0.087699712456728
      ],
      [
        -1.102326472204944,
        -0.254561803939098,
        -0.24201171434728302
      ],
      [
        -1.204769250368685,
        -0.336987129506002,
        -0.241635780094332
      ],
      [
        0.16861918385490102,
        0.154328790462298,
        2.151631441367774
      ],
      [
        0.8444179075042381,
        0.279318977187309,
        -0.26737961263272303
      ],
      [
        -1.041678135683601,
        -0.210784943179974,
        -0.24419705883401402
      ]
    ],
    "weights": [
      29,
      29
    ]
  },
  "type": "SVC"
}