{
  "parameters": {
    "coef0": 0.0,
    "coefficients": [
      [
        -998.1837782280046,
        -1000.0,
        -1000.0,
        -1000.0,
        -10.120308992940297,
        -1000.0,
        -1000.0,
        -1000.0,
        -1000.0,
        -1000.0,
        -1000.0,
        -1000.0,
        -1000.0,
        -1000.0,
        -154.68964817030243,
        -1000.0,
        -1000.0,
        -1000.0,
        -1000.0,
        -1000.0,
        -753.3700300002749,
        -1000.0,
        -1000.0,
        -1000.0,
        -91.68474775620872,
        1000.0,
        1000.0,
        1000.0,
        1000.0,
        1000.0,
        1000.0,
        1000.0,
        1000.0,
        1000.0,
        206.36383609184173,
        1000.0,
        1000.0,
        879.1850663839176,
        1000.0,
        1000.0,
        1000.0,
        1000.0,
        1000.0,
        954.4397650350958,
        1000.0,
        968.0598456368758,
        1000.0,
        1000.0
      ]
    ],
    "degree": 3,
    "gamma": 0.1,
    "intercepts": [
      -5.748789515923245
    ],
    "kernel": "RBF",
    "nClasses": 2,
    "nRows": 2,
    "vectors": [
      [
        -0.530307926338209,
        -0.08908061166077201,
        0.057436526137964
      ],
      [
        -0.21057184260192702,
        -0.652019732673066,
        -0.320933332175859
      ],
      [
        -0.30782790869021404,
        -0.443059836576611,
        -0.44069827562594704
      ],
      [
        -0.011662540866759,
        -0.8731806082927611,
        -0.523328296191865
      ],
      [
        0.36210222554167204,
        -0.8461747178379061,
        -0.550374682894701
      ],
      [
        -0.30529797031184003,
        -0.35493530708380605,
        -0.550374682894701
      ],
      [
        0.584303517043915,
        -1.034907840262074,
        -0.550374682894701
      ],
      [
        0.21503030593574002,
        -0.9559366605930331,
        -0.550374682894701
      ],
      [
        0.23446600610908702,
        -0.9583359218209541,
        -0.550374682894701
      ],
      [
        -0.38539395482584904,
        -0.61697975668347,
        -0.425333439739138
      ],
      [
        -0.048416984735987004,
        -0.700603823903544,
        -0.45022656311332404
      ],
      [
        0.259214035578458,
        -0.9622101240920031,
        -0.550374682894701
      ],
      [
        -0.31524098898129405,
        -0.426204417214163,
        -0.464694273927146
      ],
      [
        -0.31588421233714303,
        -0.5480488552873141,
        -0.42457896123912203
      ],
      [
        -0.146512569753037,
        -0.62498843904305,
        -0.325099521322116
      ],
      [
        0.23537418351694803,
        -0.9983826013889431,
        -0.550374682894701
      ],
      [
        0.37474682640996804,
        -1.019590607465697,
        -0.550374682894701
      ],
      [
        -0.29394907648462903,
        -0.488679395503241,
        -0.42962481693908705
      ],
      [
        0.23694236987279102,
        -0.9306426822414281,
        -0.550374682894701
      ],
      [
        -0.18062070935347901,
        -0.6784733766131991,
        -0.431911700945986
      ],
      [
        0.6814358621103941,
        -1.081435470301963,
        -0.550374682894701
      ],
      [
        -0.592924363211443,
        -0.04845989435128201,
        0.019600508433605
      ],
      [
        -1.022837876996095,
        0.234141526971114,
        -0.37733659105606604
      ],
      [
        -0.190398977814414,
        -0.34724044172268703,
        -0.550374682894701
      ],
      [
        -1.262678629990039,
        1.874682699113385,
        1.445718960155964
      ],
      [
        -0.6755877944399621,
        -0.249973731486748,
        -0.446745798786208
      ],
      [
        -0.7396144313542711,
        0.021329611302578003,
        -0.07281898630568401
      ],
      [
        0.11277862055508601,
        -0.914255325351868,
        -0.510544939695
      ],
      [
        0.20137477372375,
        -0.8908701965298501,
        -0.550374682894701
      ],
      [
        0.097795101171934,
        -0.9115900615826901,
        -0.527205951753512
      ],
      [
        -0.07720519216473101,
        -0.8499408042660881,
        -0.47604167420769505
      ],
      [
        0.151129099231014,
        -0.9220585919627591,
        -0.46013596859489503
      ],
      [
        -0.714088145678328,
        -0.20254419602310902,
        -0.450240010810091
      ],
      [
        0.23788730709206402,
        -0.888968409726907,
        -0.550374682894701
      ],
      [
        0.9941675157120131,
        0.110377105003507,
        -0.550374682894701
      ],
      [
        0.221690397286249,
        -0.8961941022478631,
        -0.550374682894701
      ],
      [
        0.260306546960054,
        -0.861775043704288,
        -0.550374682894701
      ],
      [
        -0.7412315678031951,
        -0.176303959875655,
        -0.44940749208871406
      ],
      [
        0.15479719149797802,
        -0.904167845890217,
        -0.5201079718817141
      ],
      [
        -0.13375613732143402,
        -0.803004528302463,
        -0.47214684904237303
      ],
      [
        0.101143676788167,
        -0.92542626059511,
        -0.463953264817747
      ],
      [
        0.28333521274955503,
        -0.8866852060721201,
        -0.528043983297933
      ],
      [
        -0.59523710135323,
        0.050079863962213006,
        -0.015480806839197002
      ],
      [
        -0.386142510462657,
        0.075579079970137,
        -0.44903383666059304
      ],
      [
        0.16344136180406402,
        -0.9228254022840231,
        -0.5195982764459031
      ],
      [
        -0.12493071502738301,
        -0.8293624729204171,
        -0.46954764238915103
      ],
      [
        0.24351953956809103,
        -0.8851434854802811,
        -0.550374682894701
      ],
      [
        -0.5840422334067541,
        0.012296450628785,
        0.0073662914053240006
      ]
    ],
    "weights": [
      25,
      23
    ]
  },
  "type": "SVC"
}